//Numpy array shape [2, 32]
//Min -0.419463992119
//Max 0.322488069534
//Number of zeros 0

#ifndef W2_H_
#define W2_H_

#ifndef __SYNTHESIS__
dense_9_weight_t w2[64];
#else
dense_9_weight_t w2[64] = {-0.0872059986, 0.0530741364, -0.1276291907, 0.2236941457, 0.0647107512, -0.0767728090, 0.1073071063, -0.0619497187, -0.2058917284, -0.1907895356, -0.2073745131, 0.0459659062, 0.2205466181, 0.0280796867, 0.1554849893, -0.1843063384, -0.1153279990, 0.0187832713, 0.3148609698, 0.2630586326, 0.2686555386, -0.1252137423, 0.3224880695, -0.1443943977, 0.3168343008, 0.0470562093, -0.1239517629, -0.0881570429, -0.1324758977, -0.1261359900, -0.0221629236, -0.0665256530, -0.1308491826, -0.3980699480, -0.3038107753, 0.2602439821, 0.1373461187, -0.2046310157, -0.0008808699, 0.3023227155, -0.1629372239, 0.2570600808, -0.4194639921, 0.1273793578, -0.2111882716, -0.3578381836, -0.0296843313, -0.0670226514, -0.2130501866, 0.1865924150, -0.0091247372, -0.0904237255, 0.0872044861, -0.1194304228, -0.0291106105, -0.3530284762, 0.2788623273, 0.0926107243, -0.2410741299, 0.2470539808, -0.1624661535, -0.2200476378, 0.1271448284, -0.1694306731};
#endif

#endif
