//Numpy array shape [32, 16]
//Min -0.482439279556
//Max 0.499647378922
//Number of zeros 0

#ifndef W4_H_
#define W4_H_

#ifndef __SYNTHESIS__
dense_10_weight_t w4[512];
#else
dense_10_weight_t w4[512] = {-0.1301172674, 0.0485260189, -0.1804105341, -0.2591116130, 0.1227575839, -0.3853781223, -0.2142122686, -0.1721336693, 0.0520884171, -0.0399629287, 0.4996473789, 0.0532581434, 0.3220033646, 0.2049297541, -0.2316490561, -0.1381710172, 0.1489294469, -0.0893386304, -0.0976012871, -0.3305026889, -0.0467965491, -0.2976655364, 0.1298175901, -0.2282456607, 0.0805670470, -0.2229648978, 0.2252879739, -0.1681624949, 0.4091187716, -0.0573813580, -0.1398367733, -0.1549441069, 0.3143259585, -0.0450960249, -0.2388165444, -0.1802160293, -0.1072036475, -0.1765204072, -0.2423022091, -0.3776096404, 0.2725335360, 0.1405135095, 0.1083692387, -0.4305613935, 0.1469486654, -0.0924710706, -0.3143962622, -0.3463971913, 0.0127652436, -0.2916559577, 0.0812108442, 0.3029747009, -0.0340272859, -0.0562367886, 0.1305248290, -0.0218774695, -0.1712743193, 0.0499534942, 0.1251640171, 0.2216343731, -0.2593458891, -0.3719860315, -0.0781049281, 0.1091373563, -0.1935486794, -0.2962040603, 0.1291392297, 0.0319433585, 0.2898790836, 0.1615683436, 0.0303324219, 0.2839315832, 0.0673354194, 0.1461067349, -0.1351418048, -0.1796632856, -0.1520646811, -0.2959209383, 0.2088979036, 0.0692305267, 0.3045220375, 0.1149194390, -0.0866110697, -0.2221516520, -0.1153075173, -0.1548816711, -0.4309341908, -0.0085672103, 0.2222658247, -0.1118232161, 0.1892933100, -0.1771533191, -0.0364310108, 0.1298927963, -0.2826051414, -0.2900226414, 0.2184498161, 0.1492925286, -0.0839335471, 0.1624543667, 0.1729003936, 0.2852752805, 0.3607133925, 0.0116653312, 0.0893906802, -0.1053047776, -0.2332984358, -0.0416555405, -0.1280496418, 0.0291660260, 0.0965008587, 0.4319791794, 0.0836443976, -0.0767360479, 0.2142429948, 0.2271187007, 0.1619077325, 0.1067063361, -0.1443946809, -0.1761023998, 0.0333253369, 0.2410048246, -0.0118207447, 0.1218008399, -0.2096446604, -0.2148909122, 0.2518367171, 0.1598726213, 0.2971815169, 0.1191518903, -0.1190946177, -0.0116074318, -0.1050857678, -0.0369868316, -0.2130079269, 0.0405885391, 0.0360845923, -0.2287593335, 0.3215910196, -0.1696295291, 0.2309790701, -0.1145331562, -0.2444996983, 0.0354792364, -0.1644553840, -0.1401048601, 0.0110849384, -0.0687313452, -0.0468103662, 0.0760803372, 0.2814243436, 0.2416791618, -0.1858019978, 0.1543360204, -0.0506185889, -0.1963995695, 0.0159719829, 0.1725263447, 0.1676613837, -0.1365002394, 0.1925745755, 0.0240346827, -0.1122622117, -0.1700107604, -0.0810796097, -0.0498375744, -0.1446522027, -0.1709955335, 0.0878829807, -0.2862488329, 0.1007168889, -0.2775012851, 0.2611440420, -0.0054040058, -0.1895102859, -0.2421330214, 0.0806837678, -0.3259172440, 0.4235650599, 0.2089125067, 0.3573527038, 0.2577714026, -0.0526578017, 0.1591702402, -0.3212349117, -0.0667699948, -0.4358684421, 0.0626808107, -0.0425417684, -0.3061656356, 0.4093220830, -0.0101824719, -0.1789789498, -0.0280693453, -0.0297690239, 0.2068899125, -0.0911920294, 0.1787071228, -0.3128559887, 0.0689245462, -0.0913296491, -0.2518516779, 0.2272405177, -0.0556608103, 0.3436695933, 0.1347452849, 0.2207380980, -0.2870761752, -0.0180188511, 0.1612361670, -0.0529534109, -0.2406069934, -0.1058245301, 0.0355494507, -0.1348236054, -0.2303220481, 0.2358202189, -0.3466802239, 0.1131676659, -0.1591964662, 0.2735292017, 0.2747558653, -0.1508907080, 0.0483564623, 0.1651983261, -0.0230869539, 0.2939835191, 0.2729431689, 0.0864200965, 0.3661201894, 0.1282767802, 0.1686395854, 0.0073781786, -0.2314650565, -0.1854652464, -0.2669402957, 0.0075084297, 0.1188685521, 0.0665979162, 0.3033641577, 0.0707214996, 0.0884328038, -0.0529758856, 0.0649399683, 0.1635534167, -0.0215291288, -0.2664873898, -0.1216065213, 0.4326025248, 0.0408675969, 0.0384870283, -0.2010656595, -0.0148495184, 0.1869615465, 0.0545199290, 0.0265978687, 0.0608708821, 0.0907030553, -0.2473122925, -0.1895587593, -0.3727803528, -0.2563103139, -0.4198629856, -0.2418598980, 0.1592996418, -0.1522230208, 0.0244326368, -0.0338408165, 0.3699017763, 0.2143114805, -0.0071734474, -0.2680263817, 0.1203243807, -0.1794827431, 0.3272144198, 0.3233325779, 0.2122401893, 0.3156445920, 0.2369939536, -0.2416963577, 0.1641097069, 0.2877642214, -0.1607021838, -0.0697072297, -0.1163932905, 0.1774720401, 0.3684003651, 0.1315279305, -0.3671332896, 0.0873963162, -0.0042983196, -0.2005555034, -0.1720635146, -0.1125473231, -0.0754092634, -0.0080444915, -0.2604796290, 0.1042166054, -0.0617362335, 0.1979449391, -0.3870831728, -0.3735288680, 0.2858654261, 0.3390548229, 0.0456601791, 0.0188872796, 0.1546245813, 0.1017931253, 0.0019395489, -0.1444539279, 0.3865746260, -0.0477821678, -0.1845069081, -0.0900049284, -0.0325216725, 0.0712189376, -0.2942644060, -0.4401172400, -0.1334380656, -0.1815309078, -0.0243194718, -0.0865122229, 0.0701936334, 0.1895925552, 0.2590751350, 0.3594939709, -0.1248813644, 0.3124588132, -0.2022089660, 0.0124309380, -0.0711039379, 0.3334180117, -0.0591711663, 0.1639537364, -0.0400707982, 0.0080160871, 0.1623316407, 0.4644680917, 0.0172791425, 0.0410675071, -0.1724946350, 0.0009788011, -0.3880400956, -0.0102086067, 0.0010355781, -0.2727517784, 0.0353767052, -0.2432679981, 0.4714911282, 0.3613422811, -0.0590533391, -0.3480814099, -0.2696953416, -0.0600956045, 0.2599237561, 0.1112871990, -0.0735669583, 0.1358111054, 0.1884169579, 0.2961916924, 0.1183614582, -0.0080411881, -0.2279917002, 0.2078043073, 0.1524275243, 0.1194192171, 0.1170983762, 0.1308387816, 0.0535432696, 0.1465723813, -0.1313910186, -0.0091136703, -0.2016441375, -0.2364239544, -0.0315682068, -0.3331773281, 0.1058334261, -0.0285273641, 0.1840315610, -0.2758276165, -0.0460663661, 0.1007377803, -0.2301519364, -0.3514558077, -0.0361414030, -0.3799814880, -0.0302328654, 0.0384810753, 0.1840122193, 0.1114732921, 0.2069469541, -0.2520241141, 0.1366426498, 0.3463246822, 0.0625605062, 0.0626165718, 0.0745247379, -0.2454458028, 0.3391606212, 0.0424886681, -0.2737383842, -0.0958885774, -0.0476389639, 0.0298558176, 0.1661550403, 0.3248850405, 0.4190583229, 0.4338186085, -0.1103177145, -0.1060411856, -0.0619695038, 0.2203177512, -0.2254026234, 0.0273655448, 0.2920990586, 0.0674851462, 0.0090800822, 0.3212120235, -0.1363616586, -0.3402620256, -0.2216271460, -0.0519713089, 0.0434132144, -0.1747685820, 0.1465912610, 0.0205031503, 0.0226205066, 0.0222062841, 0.1637941748, 0.1645496935, -0.2227684259, -0.1618815362, 0.1199158207, -0.1911734343, -0.2293026447, 0.0466740057, 0.0886955410, -0.0589626841, 0.2834596038, 0.2378385514, 0.0405433737, 0.2188227177, -0.3464019895, 0.1872851402, -0.0949573740, 0.0742072240, 0.4153381884, 0.2441654056, -0.0608877540, 0.0107179042, -0.2539336085, 0.0367379449, -0.3508765996, -0.4469400346, 0.0027450318, -0.1281986386, 0.1783865541, -0.0222017001, 0.1252183765, -0.0436894596, 0.4515333772, 0.4102077782, -0.2843380570, 0.0069745397, 0.0590108931, 0.1799826473, -0.3191407919, -0.0744353011, -0.1080869511, 0.1747691035, 0.0552791581, -0.2912700176, 0.4049999416, -0.0551138110, 0.3589953482, 0.0206302740, 0.0068475497, 0.1490106434, -0.3494364023, 0.0562551916, 0.0852899477, -0.4824392796, 0.2341660112, 0.0096058957, 0.2212899625, -0.1230420396, 0.2360810637, 0.2971807718, -0.3341443837, -0.0445617773, -0.0958593264, 0.0428132229, -0.3203175962, -0.0294397902, 0.4872801900, -0.0600111410, 0.1164038777, 0.2891789675, -0.4095730186, -0.0606143102, -0.3535119891, 0.0218602307, 0.1084460467, -0.2911772430, 0.0703677088, -0.3695890903, 0.2578274310, -0.2568213046, 0.3010874391, 0.4566846788, -0.0755411834, -0.2034290582};
#endif

#endif
